digraph Tree {
node [shape=box, style="filled, rounded", color="black", fontname="helvetica"] ;
edge [fontname="helvetica"] ;
0 [label="petal width (cm) <= 0.7\ngini = 0.66\nsamples = 98\nvalue = [41, 58, 51]\nclass = versicolor", fillcolor="#f1fdf6"] ;
1 [label="gini = 0.0\nsamples = 29\nvalue = [41, 0, 0]\nclass = setosa", fillcolor="#e58139"] ;
0 -> 1 [labeldistance=2.5, labelangle=45, headlabel="True"] ;
2 [label="petal width (cm) <= 1.75\ngini = 0.5\nsamples = 69\nvalue = [0, 58, 51]\nclass = versicolor", fillcolor="#e7fcf0"] ;
0 -> 2 [labeldistance=2.5, labelangle=-45, headlabel="False"] ;
3 [label="petal width (cm) <= 1.35\ngini = 0.19\nsamples = 40\nvalue = [0, 58, 7]\nclass = versicolor", fillcolor="#51e890"] ;
2 -> 3 ;
4 [label="gini = 0.0\nsamples = 18\nvalue = [0, 31, 0]\nclass = versicolor", fillcolor="#39e581"] ;
3 -> 4 ;
5 [label="sepal width (cm) <= 2.65\ngini = 0.33\nsamples = 22\nvalue = [0, 27, 7]\nclass = versicolor", fillcolor="#6ceca2"] ;
3 -> 5 ;
6 [label="petal length (cm) <= 4.95\ngini = 0.38\nsamples = 3\nvalue = [0, 1, 3]\nclass = virginica", fillcolor="#ab7bee"] ;
5 -> 6 ;
7 [label="gini = 0.0\nsamples = 1\nvalue = [0, 1, 0]\nclass = versicolor", fillcolor="#39e581"] ;
6 -> 7 ;
8 [label="gini = 0.0\nsamples = 2\nvalue = [0, 0, 3]\nclass = virginica", fillcolor="#8139e5"] ;
6 -> 8 ;
9 [label="petal length (cm) <= 5.05\ngini = 0.23\nsamples = 19\nvalue = [0, 26, 4]\nclass = versicolor", fillcolor="#57e994"] ;
5 -> 9 ;
10 [label="gini = 0.0\nsamples = 16\nvalue = [0, 23, 0]\nclass = versicolor", fillcolor="#39e581"] ;
9 -> 10 ;
11 [label="sepal width (cm) <= 2.75\ngini = 0.49\nsamples = 3\nvalue = [0, 3, 4]\nclass = virginica", fillcolor="#e0cef8"] ;
9 -> 11 ;
12 [label="gini = 0.0\nsamples = 1\nvalue = [0, 3, 0]\nclass = versicolor", fillcolor="#39e581"] ;
11 -> 12 ;
13 [label="gini = 0.0\nsamples = 2\nvalue = [0, 0, 4]\nclass = virginica", fillcolor="#8139e5"] ;
11 -> 13 ;
14 [label="gini = 0.0\nsamples = 29\nvalue = [0, 0, 44]\nclass = virginica", fillcolor="#8139e5"] ;
2 -> 14 ;
}